{
  "topology": [
    2,
    16,
    16,
    16,
    3
  ],
  "topologySize": 5,
  "layers": [
    {
      "neuronsSize": 2,
      "neurons": [
        {
          "value": 1.6830837756578199,
          "activatedValue": 0.6272945298717604,
          "derivedValue": 0.3776310280260286
        },
        {
          "value": 0.0,
          "activatedValue": 0.0,
          "derivedValue": 1.0
        }
      ]
    },
    {
      "neuronsSize": 16,
      "neurons": [
        {
          "value": -1.109871006322378,
          "activatedValue": -0.526037375269185,
          "derivedValue": 0.429407533368384
        },
        {
          "value": -4.3377233012067595,
          "activatedValue": -0.8126542078766206,
          "derivedValue": 0.3043477342357402
        },
        {
          "value": 18.768075056637343,
          "activatedValue": 0.9494133851103403,
          "derivedValue": 0.2631431763047336
        },
        {
          "value": -7.070365702560451,
          "activatedValue": -0.8760898778499301,
          "derivedValue": 0.2841140555263566
        },
        {
          "value": -7.221183771386155,
          "activatedValue": -0.8783630158614746,
          "derivedValue": 0.2834268191704941
        },
        {
          "value": 15.908332567738737,
          "activatedValue": 0.9408575626251868,
          "derivedValue": 0.26546830180652503
        },
        {
          "value": 11.986833843509812,
          "activatedValue": 0.9229989378435183,
          "derivedValue": 0.2704219320294802
        },
        {
          "value": -7.871963043195978,
          "activatedValue": -0.887285373582917,
          "derivedValue": 0.2807532883688752
        },
        {
          "value": -8.956768508477932,
          "activatedValue": -0.8995658080080374,
          "derivedValue": 0.27713495870273336
        },
        {
          "value": 10.985299023787382,
          "activatedValue": 0.9165644513319787,
          "derivedValue": 0.2722407565100093
        },
        {
          "value": -11.428627863911808,
          "activatedValue": -0.919540595233072,
          "derivedValue": 0.2713972217996386
        },
        {
          "value": 3.5676768564578785,
          "activatedValue": 0.7810703271212851,
          "derivedValue": 0.31523749182541383
        },
        {
          "value": 5.256251876300152,
          "activatedValue": 0.840159888097187,
          "derivedValue": 0.2953172941989546
        },
        {
          "value": 6.230675983114227,
          "activatedValue": 0.8617003441538112,
          "derivedValue": 0.2885230017878874
        },
        {
          "value": -1.201664914923533,
          "activatedValue": -0.545798276012982,
          "derivedValue": 0.4184989404497435
        },
        {
          "value": -13.078317577824663,
          "activatedValue": -0.9289687851924053,
          "derivedValue": 0.26875069758844816
        }
      ]
    },
    {
      "neuronsSize": 16,
      "neurons": [
        {
          "value": 8.694837891750785,
          "activatedValue": 0.8968523237659407,
          "derivedValue": 0.2779284197542227
        },
        {
          "value": -2.180618372639373,
          "activatedValue": -0.6855957292448859,
          "derivedValue": 0.3519598755950626
        },
        {
          "value": -9.478266749402005,
          "activatedValue": -0.9045643689060435,
          "derivedValue": 0.2756821770055572
        },
        {
          "value": 0.0071934483456028535,
          "activatedValue": 0.007142072218021947,
          "derivedValue": 0.9858674388043366
        },
        {
          "value": 3.3883481325424296,
          "activatedValue": 0.7721238220403812,
          "derivedValue": 0.31842845716764934
        },
        {
          "value": 30.541833195539414,
          "activatedValue": 0.9682960722732685,
          "derivedValue": 0.2581185093170875
        },
        {
          "value": 39.75265692251718,
          "activatedValue": 0.9754617226086315,
          "derivedValue": 0.25624934381403114
        },
        {
          "value": 12.444241078220056,
          "activatedValue": 0.9256187095885969,
          "derivedValue": 0.2696866236110656
        },
        {
          "value": -2.9891945280156826,
          "activatedValue": -0.7493228287121353,
          "derivedValue": 0.3267834643192536
        },
        {
          "value": 8.811506792283668,
          "activatedValue": 0.8980788556568643,
          "derivedValue": 0.2775693430711123
        },
        {
          "value": 10.378757625173819,
          "activatedValue": 0.9121169434361052,
          "derivedValue": 0.27350867168264403
        },
        {
          "value": -33.39086563500319,
          "activatedValue": -0.9709225115001991,
          "derivedValue": 0.257431033406979
        },
        {
          "value": -10.349122490209467,
          "activatedValue": -0.9118874608268024,
          "derivedValue": 0.2735743337592891
        },
        {
          "value": 26.036560029843706,
          "activatedValue": 0.9630130460792286,
          "derivedValue": 0.25950971945630735
        },
        {
          "value": -15.229263538574598,
          "activatedValue": -0.9383829095126129,
          "derivedValue": 0.26614655923586306
        },
        {
          "value": -1.1249495781740255,
          "activatedValue": -0.5294005983618197,
          "derivedValue": 0.42752103559958954
        }
      ]
    },
    {
      "neuronsSize": 16,
      "neurons": [
        {
          "value": -30.572606835507287,
          "activatedValue": -0.9683269739109608,
          "derivedValue": 0.25811040474691127
        },
        {
          "value": 4.5676015085734685,
          "activatedValue": 0.8203894444564478,
          "derivedValue": 0.30176674809280096
        },
        {
          "value": -13.964607683240459,
          "activatedValue": -0.9331756621244441,
          "derivedValue": 0.2675822875422853
        },
        {
          "value": -7.945301764886575,
          "activatedValue": -0.8882094728290387,
          "derivedValue": 0.2804785514614687
        },
        {
          "value": 46.75815720991679,
          "activatedValue": 0.9790611686375463,
          "derivedValue": 0.2553180770863931
        },
        {
          "value": -22.9945128857494,
          "activatedValue": -0.9583238049148349,
          "derivedValue": 0.26075400868437004
        },
        {
          "value": 37.170307822341975,
          "activatedValue": 0.9738016260006508,
          "derivedValue": 0.25668057008818634
        },
        {
          "value": -12.409771233481603,
          "activatedValue": -0.925427512327489,
          "derivedValue": 0.2697401866806828
        },
        {
          "value": -5.48822496324102,
          "activatedValue": -0.8458746412669889,
          "derivedValue": 0.29349154402773386
        },
        {
          "value": -44.86743173875454,
          "activatedValue": -0.9781980380829766,
          "derivedValue": 0.25554092728231753
        },
        {
          "value": -4.965531867096301,
          "activatedValue": -0.8323703531757771,
          "derivedValue": 0.2978334601255062
        },
        {
          "value": -23.817347412540062,
          "activatedValue": -0.9597056049795755,
          "derivedValue": 0.2603864199232434
        },
        {
          "value": 22.794389505590228,
          "activatedValue": 0.957973286107422,
          "derivedValue": 0.2608473780536034
        },
        {
          "value": 4.095367134856078,
          "activatedValue": 0.8037432880627461,
          "derivedValue": 0.30736226216788004
        },
        {
          "value": 4.563918566554544,
          "activatedValue": 0.8202705542796522,
          "derivedValue": 0.30180616890702666
        },
        {
          "value": 21.10786146794787,
          "activatedValue": 0.9547672215401835,
          "derivedValue": 0.26170372487628696
        }
      ]
    },
    {
      "neuronsSize": 3,
      "neurons": [
        {
          "value": -1.049683453809847,
          "activatedValue": -0.5121197870133307,
          "derivedValue": 0.43734846553721385
        },
        {
          "value": 5.063785223705091,
          "activatedValue": 0.8350865073369171,
          "derivedValue": 0.2969524521649615
        },
        {
          "value": -2.6371712052838343,
          "activatedValue": -0.7250610588395542,
          "derivedValue": 0.3360400624746364
        }
      ]
    }
  ],
  "weightMatrices": [
    {
      "rows": 16,
      "cols": 2,
      "data": [
        [
          -0.6713100219154433,
          1.9024261620544092
        ],
        [
          -2.5891303595411213,
          1.4060434410594134
        ],
        [
          11.13912172869102,
          5.292408328572698
        ],
        [
          -4.212722982127992,
          0.6610464136170684
        ],
        [
          -4.302331159098718,
          1.042984662953808
        ],
        [
          9.440012908168466,
          -7.096840079004916
        ],
        [
          7.110064285916291,
          -2.416416281581391
        ],
        [
          -4.6889900296920555,
          7.060542731328592
        ],
        [
          -5.3335244735333704,
          -4.606206807328905
        ],
        [
          6.515004887086909,
          -0.22080965137475062
        ],
        [
          -6.802173504071241,
          -8.803176089835308
        ],
        [
          2.107843297979209,
          2.0730977718210664
        ],
        [
          3.111105906925878,
          9.499134763362775
        ],
        [
          3.690057543741003,
          -0.9926101421771545
        ],
        [
          -0.7258491422662874,
          -2.639652819896037
        ],
        [
          -7.78233250611978,
          -6.664142266311472
        ]
      ]
    },
    {
      "rows": 16,
      "cols": 16,
      "data": [
        [
          6.766918429584184,
          -4.074256455090253,
          6.78454583366265,
          -0.6207803541940429,
          -2.0466835702311554,
          5.9379762000469185,
          -7.367493043479807,
          0.27897646374731555,
          1.8047387627790041,
          8.956780641949686,
          6.421803532290394,
          0.916848578533727,
          -7.529972427927636,
          -7.057787140728307,
          -8.729270737929436,
          -8.448278604924509
        ],
        [
          5.154821767168913,
          -9.803139087241737,
          -8.481336840071798,
          7.591767057236739,
          -6.213058605986444,
          1.112029816497905,
          4.269756772255065,
          6.770779063294455,
          5.954595954726203,
          2.4813776309861497,
          -3.037728877833029,
          -4.349090101925061,
          4.670132041862885,
          0.7234373976769946,
          -8.758517173797536,
          3.0471700166291367
        ],
        [
          -11.217132119315874,
          3.4479144697875608,
          6.9149773432537565,
          -3.9552353677296272,
          7.0014880010353835,
          -6.705509307261738,
          -4.921935919263883,
          -9.40507753818051,
          5.892836787424251,
          -8.06525522405709,
          -7.664567699882879,
          -7.560945727075271,
          -6.361236123995637,
          8.505572797291155,
          -5.214072103592887,
          7.804437769658168
        ],
        [
          4.874958142339069,
          -6.868439550862297,
          6.5538408650042115,
          -1.9757286496889743,
          5.509326915352448,
          -2.0170353181798477,
          4.933075645749164,
          -3.7333151244849745,
          5.173884766555323,
          -4.381168890059406,
          -2.6469560383122186,
          -8.399492155641445,
          1.1605691971858398,
          -5.629832479562009,
          5.667469252354497,
          -8.239085837379303
        ],
        [
          -7.95431515371805,
          1.7402227917381161,
          -7.3080773113179385,
          -1.6374443953145006,
          -1.8611707564558775,
          3.1755021686338747,
          8.466518699417705,
          -3.527062147753508,
          3.251832163310481,
          9.71684532298994,
          6.182275565421647,
          -4.980046070027034,
          -7.644876333397585,
          -5.629781356827692,
          6.454253576217688,
          -9.608618044833623
        ],
        [
          5.922637267780544,
          -10.972532503037717,
          9.235238876983892,
          -4.0936996510534,
          6.935287911793293,
          -2.574937064704441,
          5.014989213679205,
          5.1603430400459604,
          -6.306776003298042,
          -7.955420926000416,
          1.6912198135747443,
          6.880131875411577,
          8.099614698773763,
          7.161163787656339,
          -8.599188222238238,
          -1.0340487558902396
        ],
        [
          4.4047904322576885,
          -6.358336746501642,
          4.457588677433071,
          -3.116901319624391,
          5.236340709329671,
          -5.475183749530107,
          0.5828884912587338,
          -10.410798910533712,
          1.9521867781821391,
          7.212392420534435,
          -0.3648678722115588,
          7.558320544761056,
          7.907490301580502,
          6.215050417246822,
          -5.853562601762278,
          -3.8835845041967136
        ],
        [
          -3.006331766914015,
          -1.7207918792052013,
          3.748509208522142,
          2.9675214082346377,
          1.0718084565356714,
          9.185026299501402,
          -0.775638011557402,
          9.238784551005175,
          -9.956688489782833,
          5.368270970131508,
          8.692465883884491,
          6.657152544112478,
          4.700410737607844,
          -4.418819394209307,
          9.79234708862652,
          -4.109785967480923
        ],
        [
          -3.488371113340473,
          -3.83315234003633,
          -7.858184080524552,
          0.45658343195446327,
          -2.1903927468889908,
          2.1536354058935063,
          -4.1449316593093375,
          5.962692646565767,
          0.3949547203989052,
          7.479376435516963,
          -0.6413068332450176,
          0.5188551119065989,
          9.691694031699377,
          -2.778560441766148,
          8.241347888360526,
          3.9587920873341815
        ],
        [
          8.874253937225047,
          -3.7871988801383534,
          -9.375681249030217,
          3.986024207368825,
          -6.679996039737646,
          8.815828002330626,
          5.967304481505467,
          -1.9357134018623645,
          7.99930281894608,
          5.669190418553073,
          -5.598885214687377,
          -6.838638251556969,
          7.6021730157895195,
          1.431540231876054,
          0.4322807825009858,
          4.094438432231474
        ],
        [
          -6.553991310072714,
          -6.289290783203093,
          -6.3604628614805225,
          -6.993061522387749,
          2.0916322264921705,
          -4.561126095817848,
          10.768239389153536,
          3.8545975425473027,
          -9.144050974647277,
          -8.189294000810344,
          2.0605428121347003,
          5.90716427996139,
          7.884062965033116,
          -3.6632328673392553,
          3.7397523910390316,
          3.8139518180339333
        ],
        [
          0.3387909776415996,
          0.4764347015963919,
          -8.482446614796064,
          -5.807387912070483,
          6.950961444973396,
          -7.666750701516259,
          -7.997820259776958,
          3.4907155878691754,
          0.35534210503938524,
          6.4058360005199795,
          -3.111709844160745,
          7.4667108816741745,
          -7.952155807378155,
          -5.952976735902698,
          0.9681122458068097,
          8.59857599250272
        ],
        [
          7.9581451298409025,
          5.367607428304256,
          -6.135313244806961,
          -9.610225875680436,
          7.366206652796889,
          0.896060333838671,
          -0.6837745725550164,
          -5.761807444637492,
          5.022761226403305,
          4.21225508042688,
          -4.403693225893727,
          -3.3090591897768227,
          -8.984462842454008,
          2.8778567841395866,
          2.6607352940815954,
          -2.6309636799999225
        ],
        [
          3.5443158488813076,
          0.08107407214233797,
          -4.249972841128873,
          -2.214996952385178,
          -5.009052724060115,
          5.711096952161051,
          2.961006283581624,
          -4.722742870864036,
          8.281962744941763,
          -3.3588246745079395,
          -3.0536641115615355,
          5.730189446266545,
          7.428676006740313,
          2.696391480389442,
          -2.433402683542422,
          -7.209076949506022
        ],
        [
          -4.031851127692988,
          -4.3461403667952565,
          -4.271269626496624,
          10.443366039638086,
          -0.5948232893009104,
          7.857095892681013,
          -9.285786396072854,
          6.68589327226001,
          -8.520850640082456,
          -7.8146261302330045,
          5.594452490550933,
          -4.844143824616255,
          -6.559381543856069,
          7.4547554395106985,
          -9.3149399100999,
          -1.4200796431787879
        ],
        [
          6.784867918318785,
          -8.194115373717725,
          -6.919701803214089,
          2.5940246028216443,
          -9.540097645564797,
          -6.410379488741911,
          9.206549105667229,
          -9.374331431847782,
          7.775496996321682,
          8.416429764686896,
          7.385328169877226,
          8.509264784982463,
          3.361365487869122,
          -9.701816780747524,
          1.6651727177499982,
          9.350551189274704
        ]
      ]
    },
    {
      "rows": 16,
      "cols": 16,
      "data": [
        [
          -8.768714457778067,
          -2.081453875364571,
          -1.7996485730524108,
          5.892165489119094,
          -2.196181013295307,
          6.285373178048326,
          -6.099104257767877,
          -9.643383473539387,
          4.979167388437913,
          -7.688860415663017,
          1.2631041565890588,
          -0.5500532178769337,
          9.264272562326735,
          5.060384783969231,
          2.688854763140702,
          0.5520183179168665
        ],
        [
          8.18373682062822,
          6.202426615848342,
          4.989192624211251,
          -2.556851397997076,
          8.029981992500282,
          -0.907415117068697,
          6.232227291619974,
          -9.580958969719068,
          5.996149773490769,
          -7.684899653501958,
          8.066097754826203,
          8.585612286411635,
          2.43852223460687,
          8.475919893458233,
          -5.303542716065386,
          -9.288059794164683
        ],
        [
          7.34021533380032,
          -6.133125977738715,
          -9.337256674672766,
          -2.018807881268544,
          -5.658147354744466,
          -6.252817788677133,
          -4.896672673145716,
          -3.206661798413162,
          5.576530965831098,
          -2.0163014748953816,
          -9.216078358877265,
          8.716368920046397,
          7.81846366403794,
          2.236311056261597,
          -8.986638118236995,
          -8.245728234252208
        ],
        [
          6.963141240339288,
          -5.4534690686232254,
          4.764701378468397,
          6.850990748984586,
          5.215422124730845,
          -2.196279149520864,
          -5.3366734837150345,
          -3.343177895187088,
          10.881318797608413,
          2.198415737719052,
          -8.665091621699057,
          -2.391886914735366,
          -4.55347982531983,
          -4.939386858008963,
          -1.4834254161743399,
          -6.960343056013665
        ],
        [
          3.076245100962777,
          -3.5886691818326693,
          -4.764307338959792,
          7.5757212882538205,
          -3.996503165671011,
          8.692939063111282,
          2.0235617984906358,
          9.090904765882152,
          2.600753969280847,
          9.886424623579016,
          -0.5266650926985272,
          -5.838868606652482,
          -7.939152790151585,
          -0.058430745744768364,
          -6.815808275116528,
          8.05235851771224
        ],
        [
          -1.4087055166033147,
          5.909809307469198,
          6.724925424791117,
          -1.6067572099998761,
          5.341485112572658,
          7.786819081333026,
          1.2328684297788528,
          -1.386047204817835,
          -5.72074620385223,
          -4.41308210728966,
          0.07846879421866682,
          8.906826405237268,
          1.2280066191846593,
          -2.750578718976632,
          9.166219696872274,
          4.846464175629343
        ],
        [
          8.681364812374657,
          -9.520000716255561,
          5.984170572641989,
          3.959295789040101,
          1.1359778154547406,
          0.8024628837625141,
          -5.484518867836873,
          6.413444297234464,
          -5.032518944867256,
          6.609480128393924,
          9.647969642982911,
          8.186457465192198,
          -4.65019499711699,
          9.936679112048626,
          -3.7590634386054678,
          3.615037004483341
        ],
        [
          -5.046521428234946,
          4.765522215944944,
          -2.1752985467264505,
          6.206684604498356,
          4.341229308724594,
          -3.9402896744318054,
          -4.5669553714849895,
          -5.914355925561714,
          4.7579981166604535,
          7.862374768809753,
          -7.65841804005863,
          -0.7098560334857213,
          -0.7992204287624298,
          8.143561310182578,
          6.544117288793469,
          -7.771567616322558
        ],
        [
          -1.7171069267925412,
          -8.33728237120565,
          -1.5738224110481023,
          9.575467585872829,
          7.667549070381709,
          -3.183188190423661,
          5.658872534292639,
          0.6609855690934379,
          5.863633236057565,
          4.954287717129659,
          -3.933429362942964,
          6.668995677490255,
          9.032878566678626,
          9.800761998462887,
          9.48072422984196,
          4.615821343199137
        ],
        [
          -3.399239937439126,
          8.693555857280199,
          2.374644925022249,
          5.635705282869791,
          3.8655403315617853,
          5.453848784149759,
          1.1010179739729156,
          -1.1536670241508469,
          9.06722791482477,
          -8.879150924402017,
          -7.595634166549544,
          5.406267659210166,
          5.467303922960269,
          -1.225536902039428,
          6.510254166920596,
          5.330606123145966
        ],
        [
          4.693994190274506,
          5.914956388063196,
          8.476660725474296,
          -9.482377931276906,
          -5.785365634692337,
          1.9756335900679869,
          -2.0639044569997775,
          -6.103551865043753,
          -4.4150337365700105,
          6.772079533712752,
          -8.303060994428169,
          -8.613643298213372,
          2.6664909002574895,
          -0.9296983512785009,
          -5.494053520590669,
          -1.5178093810114461
        ],
        [
          -9.048251051589968,
          8.121396234697086,
          -3.4259503592729326,
          3.0143058065695065,
          -8.577484469012257,
          -8.88331684684956,
          3.0724420195636455,
          7.870658089981525,
          7.53041443999789,
          3.8006644163765833,
          -3.4071368102814996,
          4.766695542876824,
          -8.922321096954672,
          -2.0514542146699393,
          -0.48072553299090437,
          9.405187327299455
        ],
        [
          8.449679303223693,
          4.5614987748208975,
          -0.8181862126039585,
          -5.0676976977833,
          -4.195523485050085,
          6.262437428221542,
          5.351863792917974,
          5.753495657799297,
          1.5601174360064045,
          10.384134878204415,
          5.321797555771094,
          -4.772212085743227,
          4.937708293465172,
          -3.714007401970939,
          6.471917837325539,
          -1.4305199643512623
        ],
        [
          -7.70345190580292,
          -7.025322967956773,
          -4.484213946544535,
          3.538295913089059,
          1.3892242154854024,
          -7.973513438233997,
          -2.873285912527672,
          3.9020612854870134,
          -1.6657141762688479,
          4.583122623504557,
          5.262584943435888,
          8.376578322206207,
          -9.780740340839934,
          -2.39109314553807,
          -2.9060951649379643,
          6.515607613253877
        ],
        [
          -2.178098523369587,
          -5.730802896796222,
          -1.2861770100267842,
          -2.6794270365169175,
          -10.762046427613747,
          9.516855709616086,
          7.437375897279764,
          -8.173336967132274,
          3.4386705340684998,
          -5.909858149444589,
          6.208290483736585,
          -3.3454087336786307,
          -6.16930771033789,
          -3.670727845328791,
          7.241049289836118,
          -8.51256185421641
        ],
        [
          -4.1934450002396755,
          -7.524836021000969,
          9.79656892421027,
          -5.8159753776555405,
          9.119607504693796,
          -0.12666587776960725,
          5.9864288403555115,
          6.372775807042835,
          6.135224368405034,
          1.2907836910521002,
          -1.2581413087205888,
          -6.602709242276267,
          1.1692000535805782,
          2.064768466232783,
          -2.96192173588127,
          -8.328433448422889
        ]
      ]
    },
    {
      "rows": 3,
      "cols": 16,
      "data": [
        [
          -9.046432582021037,
          -3.121415426094383,
          5.808114227466149,
          8.545777229356064,
          8.684590394872961,
          -2.67871796698501,
          -9.48731232256672,
          -7.0662924445382735,
          -4.499382903370531,
          -9.177692700067672,
          9.752031508617296,
          10.659946650874872,
          1.1163299717629604,
          8.459990185182706,
          -2.614503539123981,
          -2.9211970783339485
        ],
        [
          5.80236377971567,
          1.040764179441675,
          6.119658458170269,
          -1.2923541770120697,
          1.67318540869315,
          -13.189370435497157,
          -4.92152219024896,
          1.0115945840718126,
          -6.210777217692038,
          -2.3013651960055173,
          9.781631287360812,
          -6.090361254817253,
          4.38543091437026,
          -7.439905959478648,
          -5.7051974790535525,
          7.408077421389969
        ],
        [
          -5.946954355515577,
          7.1045066768419645,
          -9.317972310664203,
          8.40331978542207,
          -3.835065766413366,
          5.759707816061683,
          -7.594257845050876,
          1.5601226149250031,
          -3.4917010191215176,
          3.5380474667145343,
          5.787753063642773,
          0.05934265729884913,
          -8.352228428456252,
          9.491229220220706,
          -0.6766232413636111,
          9.371365812376872
        ]
      ]
    }
  ],
  "errors": [
    0.0,
    0.0,
    0.0,
    0.0
  ],
  "derivedErrors": [
    0.0,
    0.0,
    0.0,
    0.0
  ],
  "bias": 0.02,
  "fitness": 1.2202854000649146
}