{
  "topology": [
    2,
    16,
    16,
    16,
    3
  ],
  "topologySize": 5,
  "layers": [
    {
      "neuronsSize": 2,
      "neurons": [
        {
          "value": 1.3238668549089516,
          "activatedValue": 0.5696827475775588,
          "derivedValue": 0.4058599804231882
        },
        {
          "value": 0.0,
          "activatedValue": 0.0,
          "derivedValue": 1.0
        }
      ]
    },
    {
      "neuronsSize": 16,
      "neurons": [
        {
          "value": -4.934817900214792,
          "activatedValue": -0.8315028334797251,
          "derivedValue": 0.2981156738137069
        },
        {
          "value": -12.733146365598547,
          "activatedValue": -0.9271834746839228,
          "derivedValue": 0.2692488605208434
        },
        {
          "value": 6.924422501887193,
          "activatedValue": 0.8738078390239982,
          "derivedValue": 0.28480650018175907
        },
        {
          "value": -8.168834843752023,
          "activatedValue": -0.8909348879065657,
          "derivedValue": 0.27967062349292776
        },
        {
          "value": -12.95763728612225,
          "activatedValue": -0.9283546362825837,
          "derivedValue": 0.2689219101114379
        },
        {
          "value": 5.058600915497702,
          "activatedValue": 0.8349453918573787,
          "derivedValue": 0.29699812785558216
        },
        {
          "value": -7.682152670679324,
          "activatedValue": -0.8848211914797213,
          "derivedValue": 0.28148787207699755
        },
        {
          "value": 11.566534580729963,
          "activatedValue": 0.9204235667696772,
          "derivedValue": 0.27114771337219173
        },
        {
          "value": -1.0011877079851532,
          "activatedValue": -0.500296750769659,
          "derivedValue": 0.44426864430704444
        },
        {
          "value": -3.183883854867513,
          "activatedValue": -0.7609876290335822,
          "derivedValue": 0.32246856865034257
        },
        {
          "value": 7.433615796755786,
          "activatedValue": 0.8814268963515416,
          "derivedValue": 0.2825044566535799
        },
        {
          "value": 13.176844972313502,
          "activatedValue": 0.9294624437275757,
          "derivedValue": 0.2686131938977286
        },
        {
          "value": 6.9345181544663195,
          "activatedValue": 0.8739684022983674,
          "derivedValue": 0.2847576973256338
        },
        {
          "value": -2.4748045615683396,
          "activatedValue": -0.7122140303773937,
          "derivedValue": 0.3411017103680195
        },
        {
          "value": 10.629761941550422,
          "activatedValue": 0.9140137171314544,
          "derivedValue": 0.2729668500711882
        },
        {
          "value": 11.4882148760207,
          "activatedValue": 0.9199245040281815,
          "derivedValue": 0.2712886952788451
        }
      ]
    },
    {
      "neuronsSize": 16,
      "neurons": [
        {
          "value": 9.684736718389505,
          "activatedValue": 0.9064085502192207,
          "derivedValue": 0.27514906775918524
        },
        {
          "value": 3.3169160271592575,
          "activatedValue": 0.7683531498623918,
          "derivedValue": 0.319787879569752
        },
        {
          "value": 10.786931976857126,
          "activatedValue": 0.915160280727552,
          "derivedValue": 0.27264010961905893
        },
        {
          "value": -19.85903605667295,
          "activatedValue": -0.9520591461042087,
          "derivedValue": 0.2624303473522318
        },
        {
          "value": -20.658583308004708,
          "activatedValue": -0.9538289284308631,
          "derivedValue": 0.26195514275624493
        },
        {
          "value": 15.13118310233823,
          "activatedValue": 0.9380082667429986,
          "derivedValue": 0.26624946852000797
        },
        {
          "value": 0.9139030906851242,
          "activatedValue": 0.47750750554353943,
          "derivedValue": 0.4580792383389679
        },
        {
          "value": 5.098056736789452,
          "activatedValue": 0.8360133329086592,
          "derivedValue": 0.296652722686361
        },
        {
          "value": 44.68095868751464,
          "activatedValue": 0.9781090408622857,
          "derivedValue": 0.2555639219134872
        },
        {
          "value": -14.223002828548484,
          "activatedValue": -0.9343099379759262,
          "derivedValue": 0.2672685600143384
        },
        {
          "value": 8.81384472020271,
          "activatedValue": 0.898103136078625,
          "derivedValue": 0.27756224181567063
        },
        {
          "value": 9.143535346611188,
          "activatedValue": 0.9014150426030618,
          "derivedValue": 0.2765961617226354
        },
        {
          "value": 26.42061638320128,
          "activatedValue": 0.9635310896726366,
          "derivedValue": 0.2593728032507854
        },
        {
          "value": 3.9483376497322458,
          "activatedValue": 0.7979119310797012,
          "derivedValue": 0.3093592962647763
        },
        {
          "value": -22.397008452821268,
          "activatedValue": -0.9572594931520223,
          "derivedValue": 0.26103766960415353
        },
        {
          "value": 11.923066637130788,
          "activatedValue": 0.9226189860286891,
          "derivedValue": 0.2705288252383322
        }
      ]
    },
    {
      "neuronsSize": 16,
      "neurons": [
        {
          "value": 5.515142906040536,
          "activatedValue": 0.846511425087415,
          "derivedValue": 0.2932891532504223
        },
        {
          "value": -21.93013248918453,
          "activatedValue": -0.9563892620126957,
          "derivedValue": 0.2612699481550626
        },
        {
          "value": -5.216724275482791,
          "activatedValue": -0.839143581782491,
          "derivedValue": 0.295643767629574
        },
        {
          "value": -28.19303495511411,
          "activatedValue": -0.9657452539094494,
          "derivedValue": 0.25878883078647186
        },
        {
          "value": 18.904699178946583,
          "activatedValue": 0.9497606072309944,
          "derivedValue": 0.26304946121411094
        },
        {
          "value": -0.02433471372692832,
          "activatedValue": -0.023756603579692386,
          "derivedValue": 0.9541278392594761
        },
        {
          "value": -30.422822817617213,
          "activatedValue": -0.9681759972423818,
          "derivedValue": 0.2581500050100081
        },
        {
          "value": -16.852137798649096,
          "activatedValue": -0.9439842997360421,
          "derivedValue": 0.26461502119283786
        },
        {
          "value": 5.143133939313133,
          "activatedValue": 0.8372166373257017,
          "derivedValue": 0.2962642582823587
        },
        {
          "value": -7.104980305621402,
          "activatedValue": -0.8766190709548761,
          "derivedValue": 0.2839538418713318
        },
        {
          "value": -32.7694453122345,
          "activatedValue": -0.9703874318706175,
          "derivedValue": 0.25757086865255374
        },
        {
          "value": 15.39943111821285,
          "activatedValue": 0.9390222750538327,
          "derivedValue": 0.26597107194381775
        },
        {
          "value": -37.57102760487393,
          "activatedValue": -0.9740738045601451,
          "derivedValue": 0.25660979448554877
        },
        {
          "value": 30.818040922129715,
          "activatedValue": 0.968571289400018,
          "derivedValue": 0.25804634157891004
        },
        {
          "value": 26.69062112974365,
          "activatedValue": 0.9638866894565301,
          "derivedValue": 0.25927888279906086
        },
        {
          "value": -11.887122770406222,
          "activatedValue": -0.9224031602852125,
          "derivedValue": 0.2705895724983938
        }
      ]
    },
    {
      "neuronsSize": 3,
      "neurons": [
        {
          "value": 0.4401533057069993,
          "activatedValue": 0.3056294798357731,
          "derivedValue": 0.5866243757490988
        },
        {
          "value": -13.448439040746251,
          "activatedValue": -0.9307883711742226,
          "derivedValue": 0.268244391890767
        },
        {
          "value": -20.74247225909839,
          "activatedValue": -0.9540070702133913,
          "derivedValue": 0.26190738138463737
        }
      ]
    }
  ],
  "weightMatrices": [
    {
      "rows": 16,
      "cols": 2,
      "data": [
        [
          -3.7426859671288906,
          -9.611209476514937
        ],
        [
          -9.633254521260477,
          -1.9365865797271464
        ],
        [
          5.215345090244775,
          -2.245969328374702
        ],
        [
          -6.185542612074238,
          -2.616578581730657
        ],
        [
          -9.802826649825583,
          1.5229710189394101
        ],
        [
          3.8059725544259733,
          7.254462681367187
        ],
        [
          -5.817920920158572,
          -7.044183632878715
        ],
        [
          8.72182465926611,
          -2.3830104404430337
        ],
        [
          -0.7713673804873564,
          -4.417848853529893
        ],
        [
          -2.420095225579055,
          -4.691324571783815
        ],
        [
          5.599970849988275,
          8.421730158790833
        ],
        [
          9.938193499993893,
          -5.036587735738176
        ],
        [
          5.222970972365543,
          -0.08818605637965327
        ],
        [
          -1.8844829843103208,
          3.0187984002281087
        ],
        [
          8.014221295902226,
          0.16250007681280465
        ],
        [
          8.66266485447241,
          -6.373429546576512
        ]
      ]
    },
    {
      "rows": 16,
      "cols": 16,
      "data": [
        [
          -3.5050997858843154,
          3.56284693743617,
          8.548019128644153,
          8.913687248423916,
          -1.6873518614084873,
          7.629644822618086,
          7.643692764081576,
          -0.30185078209998006,
          6.269338553356724,
          8.765038768251038,
          2.7122994160474185,
          1.5240597459707246,
          -0.9213683801931609,
          -2.9686591528596358,
          8.655951767666757,
          6.966664597083536
        ],
        [
          -8.179336349003787,
          -4.11435691239227,
          -7.169036911612965,
          7.931459459730323,
          0.7218404250492967,
          -0.019406044791166366,
          -5.80726242909863,
          -0.7837938742719539,
          3.935077517954219,
          4.121467178088858,
          5.052640033478392,
          1.456528663954293,
          5.296774017361974,
          1.9347103535130667,
          -6.88349471011108,
          5.02132483408095
        ],
        [
          -1.5622290095617497,
          0.3871551649823388,
          -3.297545887453196,
          7.015561397855593,
          4.50986109637895,
          0.5255578915922428,
          -9.87648890626293,
          9.153133902722043,
          4.828108019778223,
          7.545825834676117,
          -0.7796956974145726,
          7.9012329508558246,
          -2.3957486445229765,
          4.182640294835146,
          10.007317991535574,
          3.2285361045434176
        ],
        [
          8.956706793728562,
          7.59755159799742,
          -8.327575300205599,
          0.040284179671089104,
          -6.909196937580362,
          5.14952678387654,
          2.937112692843712,
          -8.702831135290674,
          -9.491129438633772,
          3.5003334595159146,
          3.422466407866097,
          0.09627187873440457,
          -2.5942546275917744,
          -2.040971393676534,
          4.819796044174456,
          -7.567707054954829
        ],
        [
          -7.37974574434549,
          2.1854109445983534,
          -4.8628866339794286,
          8.467411202235317,
          -1.8731869337361022,
          -2.0757582779575223,
          -0.7550212218134273,
          -9.657813467247655,
          3.010304823801066,
          -3.466707964770621,
          -7.2971759396847276,
          6.730288116715345,
          0.8390883974633516,
          7.382909011827266,
          0.7342993918144174,
          -2.0458702071275425
        ],
        [
          -4.001857114117476,
          4.751253296452212,
          5.140479196478465,
          3.920189887143941,
          -7.461761454069661,
          7.305121096915089,
          -7.519827514974155,
          -1.5988157262327345,
          2.2788521525482768,
          -0.44828714962994587,
          -3.6557230776981626,
          -3.0753926390553445,
          -6.660471319412952,
          4.545577037280061,
          6.065915014959329,
          8.016867188637558
        ],
        [
          9.979278135287561,
          -8.029467029868371,
          4.0917770087024445,
          8.56690632632629,
          -4.455018229973841,
          -7.004652045547017,
          4.518508111138715,
          2.312497687411395,
          -1.7045883263125639,
          2.0773263967210926,
          1.2045314712474848,
          2.98433063812639,
          7.45026096161971,
          -5.052334677918353,
          2.2367455918633556,
          -6.386678535990946
        ],
        [
          2.498743684471963,
          0.67867630927765,
          2.068012321322449,
          -6.470735503995315,
          -2.7528876843401546,
          -2.183687165637666,
          8.176648726781195,
          -6.10238251409859,
          -1.4700442456488005,
          3.935872463942651,
          -10.711178576126866,
          5.9747110528676455,
          3.222475062167673,
          -7.752088257989891,
          4.660590114290463,
          6.394483486619713
        ],
        [
          -8.921594466877693,
          7.849714594583169,
          5.8783508430134805,
          1.1711209463998187,
          -8.41351650727396,
          2.109196577192618,
          -8.583979593276299,
          6.185668775185427,
          -0.6841740851077165,
          -0.2984261693324086,
          6.280957464993765,
          3.7228573591774783,
          8.377947012654328,
          -6.01400097589206,
          -5.082631472998456,
          1.1321708904077852
        ],
        [
          -5.670547385646596,
          -6.088179108294289,
          -1.6002491971855555,
          -6.328288451654065,
          8.435759876038837,
          -4.19322753538307,
          9.046449552320988,
          -6.122531316767323,
          -5.210095160879973,
          3.1785120174855805,
          2.6318323103500663,
          5.784111128225762,
          -6.506185944454353,
          4.777017272705137,
          2.2328207899778203,
          -5.116128495681234
        ],
        [
          1.570225671779033,
          8.231600014720858,
          -4.947411829492774,
          -4.439254472902049,
          -9.794914436495594,
          -8.353153114779,
          -5.380426917426244,
          4.093230778820466,
          -1.3101667804213069,
          -1.0110551696421384,
          2.847320800061393,
          6.963993512637174,
          -8.667222729882736,
          -2.5251782215323315,
          6.692606787216496,
          -3.5821685993795027
        ],
        [
          5.663219439022294,
          -9.719587861604749,
          -4.056756981342259,
          -0.3101682630841509,
          -10.662864142136996,
          -1.4431651318132825,
          4.033822895225728,
          6.727329039006775,
          -3.7531506137776542,
          8.899094436827207,
          2.2534762883676676,
          6.407732065366233,
          3.5841619841978503,
          6.202214563032103,
          0.9800390623157984,
          -6.3984495114297495
        ],
        [
          -9.756636617353625,
          -6.900005449853597,
          3.0882787421642366,
          1.740179781756655,
          -4.4682059965338965,
          1.8698366813211686,
          -9.04151213213986,
          2.3999152260273533,
          -1.0622520238435655,
          0.6283623077519365,
          -7.27953621711989,
          7.0911410075468595,
          1.8447940353341543,
          -3.002914225346111,
          -5.0836134542102585,
          -4.900950777753086
        ],
        [
          -0.6470666256812585,
          -7.763412264442255,
          10.199355331024186,
          1.3038871682432536,
          4.41891652230823,
          0.31927513154086506,
          -5.252260204827799,
          -8.787117544733261,
          -3.414506318982201,
          -4.4412383802008,
          -9.075637956122204,
          -1.2291479769912999,
          5.866006445894689,
          -4.8919076276595685,
          0.37268171940393313,
          -9.978605559495314
        ],
        [
          0.028584658102205784,
          -6.951054429628904,
          -8.126817906894173,
          -6.707245821763719,
          7.772048840362558,
          -4.60236722725244,
          -4.333601548058883,
          -6.751447531502663,
          5.867942838246866,
          9.004074058609632,
          -4.52718051354814,
          8.795267480358547,
          0.08856475584045986,
          3.615577955160594,
          -0.47830414279882305,
          -6.2362342044404535
        ],
        [
          -6.83237218461673,
          -3.040754043956162,
          -0.4521888283252551,
          -8.477609265926256,
          8.607497813074009,
          8.625864416231742,
          -2.1545453635056138,
          0.2859327054372329,
          1.400047229376728,
          2.124739027202544,
          5.039513563565517,
          5.724106474281751,
          -3.535651077329929,
          -0.3978383385162374,
          -3.4198758423042985,
          -7.227344757241234
        ]
      ]
    },
    {
      "rows": 16,
      "cols": 16,
      "data": [
        [
          -3.58003690650567,
          -0.2675838550325089,
          6.9190238573321885,
          1.307034029585969,
          -10.101178601195777,
          -10.038117728503439,
          -2.8884538118946423,
          -3.5271133580959964,
          -3.4463281472274776,
          3.079188558058041,
          6.788197271927714,
          -0.5315457921201823,
          3.2103911498058206,
          1.5431926425782587,
          1.0069110214420522,
          5.67597674112978
        ],
        [
          -8.629290898523331,
          -4.782727368230308,
          -6.752592422170121,
          7.173421104295861,
          -1.6787689867647793,
          -1.5693043493733647,
          -5.820375897013639,
          -6.897596627237128,
          4.908101846820799,
          6.674851439160317,
          -0.01603089512886946,
          4.9117561370714675,
          1.7080584970014814,
          4.1656101398585115,
          -2.744430020859503,
          0.4313766502005496
        ],
        [
          4.91575843646263,
          -8.479437778959511,
          -2.258173060566641,
          4.197746770166109,
          -2.842268453276189,
          -4.001690499469791,
          -6.907080329452519,
          2.3063959131311256,
          1.3065621943157808,
          -0.592243010922699,
          2.289618266411795,
          -1.333312858536539,
          -5.4773788265889625,
          1.5367167490828784,
          -2.9253198528875135,
          4.187967565482701
        ],
        [
          -9.961801554755116,
          -6.255984986216472,
          -8.628522877304432,
          3.234894971371361,
          0.18826399726359955,
          -2.235998209493606,
          6.175144255857369,
          -3.458635212004408,
          6.895235710372907,
          -5.955704118123571,
          2.0448873874629143,
          -7.066935468922866,
          -2.8305425000599715,
          -5.3863999335296615,
          -0.35787594588659144,
          -2.463818678589118
        ],
        [
          -2.799638511986655,
          -4.098209346132823,
          4.234162125486483,
          -8.67273088982594,
          3.186313075176967,
          10.06522038915881,
          5.473413671371423,
          0.7584161397569078,
          -0.2942431492635613,
          6.149748264472251,
          -1.2676654749606513,
          -7.767368721662734,
          7.552594282951034,
          -9.664016423174008,
          -8.807596832404446,
          9.717990321452586
        ],
        [
          -5.3869553033878725,
          -6.18438569704634,
          -3.569473200013884,
          4.941005354922623,
          0.026584098790651822,
          -2.548157814119625,
          5.707701848976649,
          7.671373079509195,
          -6.426621836921889,
          -4.852740947605591,
          -10.828650599684124,
          1.3228786898611489,
          7.2483297406483125,
          0.33129475299969324,
          -9.866026921850661,
          4.8013216867496045
        ],
        [
          0.8612421479045149,
          -0.8819092536903668,
          -5.985474766600209,
          7.305412895376101,
          1.7388595441578747,
          -8.557328012022728,
          -8.118130369923534,
          -6.518165640193221,
          2.9762651713250046,
          9.507536591367344,
          -1.1528590107608594,
          -7.763931415597741,
          8.118071320193886,
          -8.169286185023312,
          -9.2662480817514,
          5.126829153764067
        ],
        [
          -8.077927557363294,
          1.2705739471292208,
          4.365118615295652,
          4.578749176093895,
          9.515123708746799,
          -4.988163481038179,
          -7.0253047280928,
          -7.212315884910061,
          7.236721515556505,
          -1.733594807581905,
          -1.8609093862948867,
          9.303662220414616,
          7.816920901668883,
          -3.1804263385423637,
          -1.2424953179205467,
          -9.34273833999647
        ],
        [
          9.710338267980081,
          5.247482987810718,
          -8.500039675432713,
          -8.543917550682123,
          8.42772382975365,
          -4.38183417007438,
          -0.5285193551497258,
          8.050102421586203,
          8.080653927318822,
          -1.600510075494435,
          0.5664572922114957,
          -7.532922765647786,
          3.9807959605441003,
          -0.5595890975756941,
          6.931349439768177,
          -2.456216055212195
        ],
        [
          9.229130856131771,
          -6.799710377454616,
          -9.154945125828455,
          -0.22030460926415785,
          -6.72047932500943,
          -1.8913009242297538,
          3.102662018031099,
          -1.8119889005084824,
          3.2002482518485396,
          6.671311284566084,
          -7.775388285815379,
          -5.269944328676286,
          -1.6532793883531998,
          8.902499682268594,
          3.0851531272933803,
          6.047091316944105
        ],
        [
          3.4697013156424266,
          -0.6358819262679809,
          -8.653777053422406,
          4.430708210491181,
          1.729702309855174,
          7.410339691756363,
          -3.877563814961808,
          5.8914430310216,
          -10.25947827970987,
          5.958224421649815,
          2.955069907815318,
          -0.578447203796614,
          -6.254499280512314,
          -7.380367448564067,
          -1.7882103750312375,
          -8.681951559038868
        ],
        [
          8.192021352002836,
          -1.7865717985056833,
          8.762027253685915,
          -4.309696470792991,
          -4.053446631849617,
          -1.6076345065873654,
          3.2858266624080237,
          -7.045234257413036,
          -9.730552254249885,
          6.407667480968126,
          -3.156859733409303,
          5.274902114978681,
          0.598983196946447,
          -2.541941323071293,
          -8.431642180093329,
          6.646409197846836
        ],
        [
          -6.636251486709434,
          5.486824781673098,
          -4.163775417350292,
          4.272791863863098,
          4.735004183370513,
          -4.185842763501054,
          -8.108296037458194,
          -1.5931248897945263,
          9.731997952267314,
          2.8745296063585783,
          -3.3599012222654645,
          -3.7667656171945887,
          -8.140729947688165,
          1.1308722088076717,
          1.6614219090186682,
          -6.671452723954008
        ],
        [
          6.562758534936936,
          -5.754973991776522,
          -9.634117752681037,
          -8.800940249188207,
          8.428518125456856,
          -4.579235400658909,
          1.6358123620991418,
          5.444570796583919,
          1.8614014507760863,
          -10.11060643228261,
          3.24286863264346,
          7.212606055299755,
          -1.9960034723992397,
          9.249021638494888,
          -8.525220697161,
          2.6146873930070402
        ],
        [
          -2.771236174904379,
          -0.6526049873546433,
          9.002665161070553,
          -8.40762176646886,
          8.839499807506252,
          -2.7461652617886356,
          -0.48038228371607516,
          0.4484915535684262,
          9.958120830721736,
          -7.830387164551897,
          3.0013398059652285,
          5.161689431061742,
          -7.1862687847440965,
          9.859722841236014,
          8.2506581503123,
          7.4275267274802275
        ],
        [
          -9.965122796641946,
          -6.601769385869909,
          -3.1863886304861015,
          7.386217652101717,
          8.557535486386428,
          -1.0121216216198992,
          9.911097258336554,
          0.6496278724001598,
          5.24335725286762,
          -7.202895721739198,
          8.366467995626088,
          -4.8338819882051975,
          1.1741445153792807,
          -1.580895265217162,
          2.5779769586525454,
          3.8640532091337043
        ]
      ]
    },
    {
      "rows": 3,
      "cols": 16,
      "data": [
        [
          -7.289512289778979,
          -6.222354149584518,
          -6.189330166251423,
          8.250781424287693,
          6.877291706695491,
          -3.0957296478159417,
          -1.9498519336843274,
          3.5196034938411302,
          -6.781691713495692,
          4.031871616464101,
          11.06929631216134,
          6.53046566783424,
          -7.065514946919827,
          4.160720109858078,
          6.621698286633474,
          5.669843688511861
        ],
        [
          -3.694652934186598,
          -5.359667738576741,
          -2.5270384319340575,
          -5.854474204764377,
          -3.882744776243066,
          -8.901071001450429,
          5.19740807100545,
          8.56868653554793,
          -2.816244903502115,
          3.379765691397121,
          0.8521504040915113,
          -9.643035589436193,
          1.4089706715067751,
          4.144518583213678,
          0.8511179028370104,
          -5.52465960101618
        ],
        [
          -4.222612086403834,
          6.821745441763362,
          2.2150591444487517,
          -6.863142018463291,
          5.649575794983058,
          -1.5259989395861773,
          1.4784545676479048,
          -7.434537632086959,
          3.2822015971465213,
          6.4070390574851075,
          4.190919003945218,
          -0.9668647593427586,
          0.7200299350778909,
          -7.854141328663804,
          -3.199546958565471,
          7.790207797776102
        ]
      ]
    }
  ],
  "errors": [
    0.0,
    0.0,
    0.0,
    0.0
  ],
  "derivedErrors": [
    0.0,
    0.0,
    0.0,
    0.0
  ],
  "bias": 0.02,
  "fitness": 2.0589775536015757
}