{
  "topology": [
    2,
    16,
    16,
    16,
    3
  ],
  "topologySize": 5,
  "layers": [
    {
      "neuronsSize": 2,
      "neurons": [
        {
          "value": 0.8471012295317797,
          "activatedValue": 0.4586111556790587,
          "derivedValue": 0.47002497871062077
        },
        {
          "value": 0.0,
          "activatedValue": 0.0,
          "derivedValue": 1.0
        }
      ]
    },
    {
      "neuronsSize": 16,
      "neurons": [
        {
          "value": 6.611487460576735,
          "activatedValue": 0.8686196351003082,
          "derivedValue": 0.28639022058403846
        },
        {
          "value": -4.955294256906451,
          "activatedValue": -0.8320821848827564,
          "derivedValue": 0.29792715997185304
        },
        {
          "value": 7.625931037569125,
          "activatedValue": 0.8840704851865117,
          "derivedValue": 0.28171223397617
        },
        {
          "value": -1.609604448937034,
          "activatedValue": -0.6168001627958105,
          "derivedValue": 0.38254921183666873
        },
        {
          "value": 4.636716531529322,
          "activatedValue": 0.8225917527684001,
          "derivedValue": 0.30103791576309724
        },
        {
          "value": 0.28290554157509384,
          "activatedValue": 0.22051938541613525,
          "derivedValue": 0.6712907094308719
        },
        {
          "value": -7.023096845251247,
          "activatedValue": -0.8753598492841471,
          "derivedValue": 0.28433529492898896
        },
        {
          "value": 5.650587986244785,
          "activatedValue": 0.8496373550626997,
          "derivedValue": 0.29229866001097715
        },
        {
          "value": -4.406577053631939,
          "activatedValue": -0.8150400909706379,
          "derivedValue": 0.3035481256093843
        },
        {
          "value": 1.7969215863185646,
          "activatedValue": 0.6424640558778605,
          "derivedValue": 0.3706877649249897
        },
        {
          "value": 6.581121739824153,
          "activatedValue": 0.8680933990616545,
          "derivedValue": 0.2865515937598876
        },
        {
          "value": -0.8255351230406222,
          "activatedValue": -0.45221541487824457,
          "derivedValue": 0.4741741946646826
        },
        {
          "value": 7.547824031985674,
          "activatedValue": 0.8830111621088558,
          "derivedValue": 0.28202928808481015
        },
        {
          "value": -7.772753441344011,
          "activatedValue": -0.8860107027188037,
          "derivedValue": 0.2811329139666802
        },
        {
          "value": 4.28889987722659,
          "activatedValue": 0.810924762575694,
          "derivedValue": 0.30492932006957796
        },
        {
          "value": -6.147435276709173,
          "activatedValue": -0.8600896739479926,
          "derivedValue": 0.2890228880138434
        }
      ]
    },
    {
      "neuronsSize": 16,
      "neurons": [
        {
          "value": 14.781077571437558,
          "activatedValue": 0.9366329710076379,
          "derivedValue": 0.2666277557660938
        },
        {
          "value": -17.93534783512602,
          "activatedValue": -0.9471887176983911,
          "derivedValue": 0.26374480310909026
        },
        {
          "value": -18.768610345942427,
          "activatedValue": -0.9494147548815816,
          "derivedValue": 0.26314280650571803
        },
        {
          "value": -2.173505660018063,
          "activatedValue": -0.6848910614533745,
          "derivedValue": 0.3522543357619125
        },
        {
          "value": 0.7337396023493832,
          "activatedValue": 0.42321211406551235,
          "derivedValue": 0.4936972823617561
        },
        {
          "value": -40.56362629177911,
          "activatedValue": -0.9759405016063819,
          "derivedValue": 0.2561251781925137
        },
        {
          "value": -4.245773991692855,
          "activatedValue": -0.8093703614407354,
          "derivedValue": 0.3054534649176285
        },
        {
          "value": 27.85774079516536,
          "activatedValue": 0.965347252680032,
          "derivedValue": 0.2588936557243851
        },
        {
          "value": 9.677037165696875,
          "activatedValue": 0.9063410584340013,
          "derivedValue": 0.27516855076872576
        },
        {
          "value": 2.203182753615991,
          "activatedValue": 0.6878105069493379,
          "derivedValue": 0.35103678448246
        },
        {
          "value": 24.320410760373406,
          "activatedValue": 0.9605061699249758,
          "derivedValue": 0.2601738078110193
        },
        {
          "value": 14.11939358000401,
          "activatedValue": 0.9338597811672461,
          "derivedValue": 0.2673930020924981
        },
        {
          "value": 24.89497959979403,
          "activatedValue": 0.9613824758522709,
          "derivedValue": 0.2599413789791624
        },
        {
          "value": 15.279497457680872,
          "activatedValue": 0.9385730424050537,
          "derivedValue": 0.2660943551326771
        },
        {
          "value": -32.02443348096086,
          "activatedValue": -0.9697193897186301,
          "derivedValue": 0.2577456116918547
        },
        {
          "value": 7.388188256457177,
          "activatedValue": 0.8807847452362307,
          "derivedValue": 0.2826973990108918
        }
      ]
    },
    {
      "neuronsSize": 16,
      "neurons": [
        {
          "value": 46.858963469002035,
          "activatedValue": 0.9791052725024499,
          "derivedValue": 0.2553066978144899
        },
        {
          "value": -2.247191301398153,
          "activatedValue": -0.6920415500098726,
          "derivedValue": 0.3492834058209523
        },
        {
          "value": 24.74493612353861,
          "activatedValue": 0.9611574099387374,
          "derivedValue": 0.2600010450729058
        },
        {
          "value": -0.1170982092972306,
          "activatedValue": -0.10482355832518735,
          "derivedValue": 0.81924565668428
        },
        {
          "value": 7.2734490216156535,
          "activatedValue": 0.8791314242237611,
          "derivedValue": 0.28319507060128696
        },
        {
          "value": -10.697902069742957,
          "activatedValue": -0.9145145861165537,
          "derivedValue": 0.2728240433817512
        },
        {
          "value": -24.560246835607035,
          "activatedValue": -0.9608767471444393,
          "derivedValue": 0.2600754789630205
        },
        {
          "value": -0.601587181022448,
          "activatedValue": -0.3756193781710945,
          "derivedValue": 0.5284494252775195
        },
        {
          "value": -6.906501350476481,
          "activatedValue": -0.8735218074755992,
          "derivedValue": 0.28489346993302056
        },
        {
          "value": 26.868759578919285,
          "activatedValue": 0.9641175274712827,
          "derivedValue": 0.2592179415319131
        },
        {
          "value": 18.335722555339412,
          "activatedValue": 0.948282253371294,
          "derivedValue": 0.2634488158009287
        },
        {
          "value": -47.84058170185447,
          "activatedValue": -0.9795252233868863,
          "derivedValue": 0.25519838406383605
        },
        {
          "value": -14.786047611501408,
          "activatedValue": -0.9366529213258283,
          "derivedValue": 0.2666222624935418
        },
        {
          "value": -5.135302584154854,
          "activatedValue": -0.8370088538774569,
          "derivedValue": 0.29633128277219245
        },
        {
          "value": -16.150749956900214,
          "activatedValue": -0.9416935117990177,
          "derivedValue": 0.265239769099885
        },
        {
          "value": 8.961049930418426,
          "activatedValue": 0.8996089762640118,
          "derivedValue": 0.2771223631664384
        }
      ]
    },
    {
      "neuronsSize": 3,
      "neurons": [
        {
          "value": -10.933749783871848,
          "activatedValue": -0.9162040416373172,
          "derivedValue": 0.2723431750761841
        },
        {
          "value": -33.66215263376673,
          "activatedValue": -0.9711500895352404,
          "derivedValue": 0.2573715937254797
        },
        {
          "value": -4.647041748921612,
          "activatedValue": -0.8229161312308404,
          "derivedValue": 0.3009307890265413
        }
      ]
    }
  ],
  "weightMatrices": [
    {
      "rows": 16,
      "cols": 2,
      "data": [
        [
          7.781227592149836,
          5.6374353331648575
        ],
        [
          -5.873317241737988,
          4.731013578388106
        ],
        [
          8.978774640397075,
          -8.477742053872719
        ],
        [
          -1.9237422779303122,
          -7.832628425386479
        ],
        [
          5.450017507448468,
          -8.319537603048566
        ],
        [
          0.3103590602983899,
          -8.277851521305667
        ],
        [
          -8.314350870608692,
          -2.1870933724813435
        ],
        [
          6.6468891673749475,
          -9.87063297489777
        ],
        [
          -5.225558527495766,
          -6.632938113527138
        ],
        [
          2.097649636632834,
          -8.930368180757075
        ],
        [
          7.745380966393707,
          1.0953411717992765
        ],
        [
          -0.9981512168362414,
          -0.052230187496210334
        ],
        [
          8.88656959705577,
          -6.45291957724093
        ],
        [
          -9.199317826101277,
          5.721199000903404
        ],
        [
          5.039421179433478,
          -7.078240661040017
        ],
        [
          -7.280635491602478,
          -7.821135585061308
        ]
      ]
    },
    {
      "rows": 16,
      "cols": 16,
      "data": [
        [
          3.086378037420702,
          -5.576096804496395,
          0.6201620194162434,
          -3.9646356236401985,
          -9.543449600771714,
          -4.995426854943118,
          -5.478358669947828,
          7.192243734388039,
          -0.4902938226349465,
          4.279828649810951,
          -5.511686265604506,
          9.791238325212916,
          3.640986397557091,
          -2.4411855632289496,
          -1.4237366693542235,
          -5.0368444680451745
        ],
        [
          1.614754640692517,
          -8.61619206773881,
          -4.862249593348629,
          -8.536999408686617,
          -3.4877298153412912,
          6.715296306043614,
          3.292303300328717,
          -2.9644022975499285,
          0.20427141920141034,
          -6.345899777202927,
          -5.320018447322627,
          9.90875888708466,
          -7.785755237916525,
          -1.579850488356238,
          -9.84643942138831,
          -7.088667137804954
        ],
        [
          5.536314507747852,
          -4.391614731543242,
          -6.44267828676332,
          4.325409149312316,
          -4.8235516740726325,
          -6.796744448442704,
          0.8314440521413697,
          -0.6848606874293068,
          7.715639418569198,
          4.592605339840849,
          -10.790503406306648,
          3.938866901273823,
          -5.8060221386433035,
          -3.1505535394248434,
          1.3643112411574627,
          -4.189829874199598
        ],
        [
          11.202475035426549,
          2.0497228850793094,
          4.75412300198564,
          4.675047258354688,
          -0.8832610946463972,
          -3.1734740119831635,
          1.0424540483448403,
          4.47003534501542,
          4.320127751338809,
          -6.387780532386255,
          -7.732144135822598,
          -7.964144064901434,
          3.0760943151440063,
          4.27868121000232,
          -4.667779789855521,
          -3.0212931103835405
        ],
        [
          0.8553464948643834,
          -2.0105733099041476,
          -7.7278876990382654,
          -7.131444458855497,
          4.244464645072418,
          9.21341940137249,
          3.343455774637058,
          -6.0097347347805234,
          5.921851900948399,
          -5.641776687163327,
          7.436773982154254,
          6.6206068815768715,
          0.9227388794051983,
          8.322477614407742,
          7.81785331344048,
          -9.823844253815373
        ],
        [
          -8.459491332628243,
          9.29179982311823,
          -0.7175058097399847,
          6.852819925182307,
          -1.4611100138437643,
          -7.327570607865061,
          9.168911276958122,
          -2.667093867008,
          -4.767051974637973,
          9.891248486311863,
          -9.200192200733227,
          0.8240774723938362,
          -5.957263047548063,
          4.222826404162695,
          1.2189353866710988,
          1.6282257445826502
        ],
        [
          -4.933535342942809,
          -5.314555933194296,
          -2.746075421185692,
          -4.785905756003764,
          -5.540178254688182,
          -3.0199129419478874,
          -3.1318050596869025,
          -3.0831839515301613,
          5.082729837891057,
          0.2630491324149502,
          -3.786242545798528,
          3.3308751261316623,
          -0.16873117803716542,
          -0.5747866539088935,
          8.857177037779486,
          -1.6260417292650367
        ],
        [
          2.7309199662126904,
          -2.5366596178189926,
          1.6458354284001486,
          -9.325001829854177,
          9.659801628465575,
          8.175330845906409,
          8.980329275825639,
          1.9069242920924059,
          4.704300086647796,
          -5.036382505550662,
          4.71807856824307,
          0.5572925552150458,
          2.928327440825982,
          -11.070568767321756,
          5.738583004608371,
          1.373855398072255
        ],
        [
          3.419380270942116,
          -7.006959357921523,
          3.3752379363579674,
          -0.2502587262840201,
          3.544521703057871,
          2.473797856075615,
          1.7990760700731372,
          5.49540295000574,
          6.022423571545395,
          -7.9309657052350175,
          1.036009484409408,
          -2.5645842152053504,
          -2.2292599808970293,
          4.870752938854785,
          7.169318507138594,
          0.49093794091456466
        ],
        [
          -9.94950923716372,
          4.619269016799058,
          -3.952354500772511,
          -8.25573959372392,
          7.289499241794216,
          9.515083147958403,
          5.487785612289887,
          2.8247263349320777,
          -5.596966360523501,
          -2.2119252906890203,
          -1.0376010138066254,
          1.5222058131993785,
          6.38377142569149,
          -9.993531319000633,
          -6.868395804447386,
          3.595824116355983
        ],
        [
          -3.1071610705347936,
          -1.0940022831894605,
          2.683587733670924,
          -1.2735704507940175,
          9.07374238718083,
          -3.825664949598268,
          -6.958158514983802,
          -9.076539410568124,
          -5.756652566342588,
          7.315383475099731,
          7.353764570979542,
          -6.898390551347598,
          9.030971818843014,
          -6.558034304433086,
          -8.221811642279075,
          9.395762811915105
        ],
        [
          -4.704901259575488,
          -4.357510785132073,
          7.9420699198444025,
          6.9072956413995,
          6.067663616896748,
          1.808243625581923,
          0.6483919685096511,
          4.014208753369709,
          -4.432382522034102,
          2.1234115894576284,
          2.609513031593267,
          3.4297983583442813,
          -4.938633185389639,
          9.945465146046223,
          9.455220410071423,
          -3.9304335766383147
        ],
        [
          9.819499052073779,
          -7.5364035671928855,
          5.048914434524331,
          5.479591494729954,
          -5.067204971542851,
          -1.7353596241908598,
          -6.773057804573297,
          -4.006574625290122,
          2.990292055107821,
          5.398456853580768,
          4.727176514460169,
          2.3067649727720556,
          9.501465638105554,
          3.3211794102168293,
          8.425643262967116,
          6.225364325453977
        ],
        [
          -3.3800490722951246,
          -7.176714835613692,
          2.255753720978282,
          -4.147374038729284,
          -3.714801309547121,
          7.955012109518422,
          2.7313314197970318,
          3.442815885146609,
          7.451324542483643,
          5.193409189911603,
          -8.011487485992904,
          -1.0110806333428184,
          4.010037533410431,
          -10.03349570940429,
          2.391445668828862,
          -3.8401375980129915
        ],
        [
          1.7914385744202839,
          10.105798430838234,
          2.8766627004245438,
          6.304810818571545,
          -7.672234225790489,
          8.175829113355402,
          -2.7040897278575518,
          -9.273333020366984,
          5.664231416375231,
          -0.36115717428273464,
          2.176516084420275,
          -3.164098819458065,
          -6.147555572369176,
          -1.4336571029862342,
          -6.3275731434160996,
          3.4976261959175954
        ],
        [
          -3.5525906913445793,
          -1.467920742155865,
          0.0740955287697389,
          -8.702174082543392,
          -5.927355890941175,
          -4.12333882635391,
          -2.5556494960855902,
          -0.6856402148484193,
          -2.9895495542895496,
          -7.499757709640688,
          8.066782377817518,
          -5.607105668599104,
          -8.540564747039133,
          -7.67256579586979,
          -2.84030290384949,
          -4.441623766311238
        ]
      ]
    },
    {
      "rows": 16,
      "cols": 16,
      "data": [
        [
          9.8683267210392,
          -0.574701803376632,
          -8.531877164620738,
          -8.649631512364945,
          2.8569300034319816,
          -2.7601048542481874,
          -3.9020898063230325,
          -0.24536670883664335,
          5.894236538732774,
          8.746009821837717,
          -1.3556153397743862,
          -0.9164002114834322,
          4.580993868676624,
          -0.7130389928265926,
          -0.888293949550492,
          2.732728803196343
        ],
        [
          9.257111315290139,
          3.7891273786720303,
          5.835619356457377,
          -0.35224498967025886,
          -6.836821340950168,
          4.336058421324729,
          -6.470020080775819,
          4.062799755904047,
          -4.11684742949314,
          -2.7023774141527857,
          -6.198189024002658,
          3.8070673055586663,
          0.39174977353170526,
          8.188465057881425,
          -3.2775580199946144,
          -8.328131661449067
        ],
        [
          2.0644605501484232,
          2.785626871032287,
          -4.182129929368524,
          6.747227197072353,
          10.891452925500925,
          -5.823926740215663,
          9.122131788285404,
          7.027460727405236,
          -2.9676849485982064,
          5.436816190789606,
          1.9352514416416842,
          9.889824644830181,
          3.383247342122129,
          0.8357456306841158,
          -8.370348939031217,
          -8.982667975025162
        ],
        [
          7.37316620707733,
          -9.542535141528994,
          4.3124654484444065,
          -9.790606953259275,
          -1.9247368403930056,
          0.10821005113193594,
          -7.992303986294003,
          -7.267207985327394,
          -9.545282477793618,
          -0.24206912990347007,
          -5.364106404168752,
          8.893572115568304,
          -0.19305038344814296,
          -6.77453553660486,
          2.6975506582700897,
          -2.726479422935628
        ],
        [
          -6.521678630282981,
          6.483274297521266,
          -4.250875517688108,
          5.1170971926124595,
          -8.017858228501844,
          1.9629731668076416,
          -7.078441440355699,
          -0.23355629947836398,
          3.18972088576811,
          7.00775404039991,
          6.884494339951562,
          5.98767368032707,
          -1.7885318654149351,
          8.538231998393883,
          4.793940200668434,
          -3.1605889419146322
        ],
        [
          -5.248299110515646,
          -4.675044127745714,
          -3.350080474044108,
          5.089617696972194,
          -0.8386998200226614,
          4.61641301467616,
          -1.8083278990764142,
          -8.03299230013263,
          -3.833325268936396,
          8.155157108372634,
          -7.618917266611853,
          1.3553137364539687,
          -7.903718629448306,
          -5.1367370071867775,
          -9.676227392785501,
          9.287314157112053
        ],
        [
          -6.773758444561977,
          8.902726999483399,
          -9.552180315920825,
          -9.446173097158548,
          3.885642213359958,
          -7.625063431761742,
          -1.758026989452899,
          -9.012268031864979,
          -9.24144969307633,
          2.3423259211405494,
          -9.545046289210038,
          -4.424329079017706,
          -9.43205128950223,
          6.269492279600286,
          -3.3101641303484435,
          -8.075316139165142
        ],
        [
          0.32686703512479887,
          -3.7869479571652924,
          -6.6478822247588045,
          2.2721264966864756,
          -0.7096619486262434,
          -3.4515357491353225,
          -5.243620501611299,
          1.496761384142557,
          -9.36443726223567,
          5.498351330493518,
          -8.08593590752405,
          3.2911192695374893,
          -5.784877373367461,
          5.539538610090465,
          6.257360930264124,
          -2.49597412732361
        ],
        [
          -6.014620735283525,
          4.884819169120072,
          -2.0656182680650286,
          6.526175842949382,
          -7.73266305764135,
          -7.832340048115094,
          -4.634544794064968,
          2.5362290773337115,
          -0.6584272815457854,
          -8.008747408989956,
          -4.425794516246433,
          -3.7782958714567583,
          3.3844259971147586,
          10.485930266751119,
          7.9014812412088595,
          4.226938851375458
        ],
        [
          5.086127125352194,
          3.3915423131173412,
          3.889314814463648,
          -9.974988682093652,
          4.995179249697941,
          9.171412366910259,
          -7.084544835620182,
          2.247426882562012,
          4.012243400369016,
          0.1844352121617414,
          8.201884170971077,
          0.9108049524638786,
          8.625934322176716,
          -4.385700080837229,
          0.6705162340296906,
          5.7598193815986
        ],
        [
          -7.952004886477766,
          -1.3864284209189104,
          -8.081279176407373,
          7.05833326278217,
          6.183266984058522,
          -6.029236813469449,
          0.6083255124736588,
          9.441919633050725,
          -8.187915857972552,
          7.34545243531606,
          -1.1955572507789305,
          1.734081824506366,
          3.632651878600516,
          -4.574709212134985,
          -7.588922219712025,
          -0.1942948401068616
        ],
        [
          -2.9063869390562607,
          -4.895499190875467,
          8.829770518831067,
          -2.7539008915090095,
          -6.785303737022166,
          -4.759871708019932,
          -5.441669645005765,
          -9.689693627953188,
          -12.390818779127729,
          -8.954520632752354,
          -1.4241583520691332,
          -6.323210047190955,
          -10.97262280086822,
          -10.39934192963132,
          -7.490256100598803,
          -2.7183267075950894
        ],
        [
          -6.692907108821918,
          -10.45725664001749,
          -8.35607107307768,
          0.972269316925298,
          1.7037110655516425,
          6.298424653925522,
          9.657836183653995,
          -9.536159227600141,
          8.938120075606236,
          -8.429056218260197,
          4.777075340607655,
          -8.530546568662299,
          -7.2905107905159,
          0.4779313691358684,
          -1.7875578037678592,
          2.997443330768508
        ],
        [
          1.7023650702155617,
          2.1583766121118906,
          3.785454570030983,
          -8.790753402844185,
          0.731491241381959,
          4.110536825676924,
          -7.071777852138907,
          -6.245593444632969,
          5.759135016566787,
          2.1723545475765986,
          4.599747141424276,
          -8.334563519168267,
          -5.578142624210707,
          -6.151478493008378,
          -6.186638594380563,
          -1.5171095859144401
        ],
        [
          2.9198162673775947,
          5.503733669364854,
          5.1429337132468635,
          -5.4305872249533635,
          -5.509173868625885,
          6.551234347899799,
          2.25620489060622,
          -0.7310500631219519,
          8.486127671850562,
          -1.0960316876983824,
          -0.7330510392705758,
          -0.4627153893091691,
          -7.604329340477299,
          -4.230630120022299,
          -1.374244134409215,
          3.2646706092472026
        ],
        [
          0.6349268199101523,
          7.4066364512950535,
          -4.9083122542272655,
          -1.0017069198172894,
          9.789907894499596,
          -9.84264853052876,
          4.22667660323591,
          -4.705847572582065,
          -3.9607583871239127,
          -7.2849107191018625,
          7.788402350644173,
          0.4325928986437866,
          7.170583973880916,
          -1.8311878443046563,
          -5.074631810108756,
          -5.846900723503536
        ]
      ]
    },
    {
      "rows": 3,
      "cols": 16,
      "data": [
        [
          -5.509675478389233,
          -0.4628718932319955,
          -4.555441553891211,
          -6.95864004243619,
          6.724349061888122,
          3.337650531169392,
          -3.1332807930764783,
          7.971114881488173,
          9.763422798704347,
          7.581567921200642,
          4.672754460208319,
          7.160738225360558,
          -0.6853987084789595,
          6.951609860750029,
          -7.3828647446800915,
          -3.4237638723987285
        ],
        [
          5.149325046729788,
          1.0647022533674924,
          3.179522521082909,
          5.872352057049074,
          -4.748014330828392,
          7.6844228510282235,
          -9.21210539958992,
          4.158843333810109,
          3.5194632687363145,
          3.066923748227258,
          -13.062080413803368,
          5.416659286751741,
          2.4523832094063938,
          7.083676069427665,
          7.704644395413643,
          -3.5839408146284057
        ],
        [
          6.601778641777802,
          -7.796783164959631,
          -7.084016451127142,
          2.0208937074819904,
          5.677438516725877,
          -4.810700597073366,
          5.518050713355834,
          -4.76241311348498,
          1.4839453193421033,
          -5.477342046722402,
          6.181089599938918,
          9.531860383827865,
          -3.4882521248262988,
          -2.4159639594776223,
          6.56376714614418,
          -4.934710578600116
        ]
      ]
    }
  ],
  "errors": [
    0.0,
    0.0,
    0.0,
    0.0
  ],
  "derivedErrors": [
    0.0,
    0.0,
    0.0,
    0.0
  ],
  "bias": 0.02,
  "fitness": 2.047462269347469
}