{
  "topology": [
    2,
    16,
    16,
    16,
    3
  ],
  "topologySize": 5,
  "layers": [
    {
      "neuronsSize": 2,
      "neurons": [
        {
          "value": 0.0027326668523555146,
          "activatedValue": 0.0027252197347210575,
          "derivedValue": 0.994571760314361
        },
        {
          "value": 1.0,
          "activatedValue": 0.5,
          "derivedValue": 0.4444444444444444
        }
      ]
    },
    {
      "neuronsSize": 16,
      "neurons": [
        {
          "value": -6.76412731889864,
          "activatedValue": -0.8712025242597577,
          "derivedValue": 0.2856001364971694
        },
        {
          "value": 0.6353957232663912,
          "activatedValue": 0.38852720123133827,
          "derivedValue": 0.5186701038937351
        },
        {
          "value": 8.858608524131153,
          "activatedValue": 0.8985658069744553,
          "derivedValue": 0.2774269772670849
        },
        {
          "value": -6.958068398795999,
          "activatedValue": -0.8743413665367222,
          "derivedValue": 0.28464438405933734
        },
        {
          "value": -3.506859980517193,
          "activatedValue": -0.7781160266076775,
          "derivedValue": 0.31628588230440774
        },
        {
          "value": 5.087301001584913,
          "activatedValue": 0.83572358262888,
          "derivedValue": 0.2967463773016707
        },
        {
          "value": 0.3497125333601208,
          "activatedValue": 0.25910149362657875,
          "derivedValue": 0.6307808815700457
        },
        {
          "value": -1.5028920485380741,
          "activatedValue": -0.6004621930921493,
          "derivedValue": 0.39039941753017243
        },
        {
          "value": 6.097822914148359,
          "activatedValue": 0.8591117287518315,
          "derivedValue": 0.28932703636716073
        },
        {
          "value": 2.220752965839196,
          "activatedValue": 0.6895135980292605,
          "derivedValue": 0.3503294255230334
        },
        {
          "value": 7.357486133332773,
          "activatedValue": 0.8803467951910051,
          "derivedValue": 0.2828290999895964
        },
        {
          "value": 6.310774903520602,
          "activatedValue": 0.8632155943525991,
          "derivedValue": 0.2880539130059599
        },
        {
          "value": -8.129097273016045,
          "activatedValue": -0.8904601440762584,
          "derivedValue": 0.27981110630043976
        },
        {
          "value": -7.5228309574187735,
          "activatedValue": -0.8826680940879696,
          "derivedValue": 0.2821320826725336
        },
        {
          "value": -4.740196441497837,
          "activatedValue": -0.8257899341613714,
          "derivedValue": 0.2999842013003916
        },
        {
          "value": -3.1363694679489615,
          "activatedValue": -0.758242099080222,
          "derivedValue": 0.3234764370869594
        }
      ]
    },
    {
      "neuronsSize": 16,
      "neurons": [
        {
          "value": -8.716837309312165,
          "activatedValue": -0.8970858553902465,
          "derivedValue": 0.2778599978847453
        },
        {
          "value": -2.2473804201569476,
          "activatedValue": -0.6920594846871468,
          "derivedValue": 0.34927600152811417
        },
        {
          "value": 18.881592820507297,
          "activatedValue": 0.9497022190813339,
          "derivedValue": 0.2630652166470569
        },
        {
          "value": -20.583483409611713,
          "activatedValue": -0.9536682758282348,
          "derivedValue": 0.2619982263301323
        },
        {
          "value": 24.1399565378769,
          "activatedValue": 0.9602226838183527,
          "derivedValue": 0.2602490655801268
        },
        {
          "value": -18.058869019535933,
          "activatedValue": -0.9475309894320083,
          "derivedValue": 0.2636521068090523
        },
        {
          "value": 18.907789584210498,
          "activatedValue": 0.9497684061924618,
          "derivedValue": 0.2630473568528929
        },
        {
          "value": -3.9490835138284632,
          "activatedValue": -0.7979423872711273,
          "derivedValue": 0.30934881558840743
        },
        {
          "value": -21.93738475885939,
          "activatedValue": -0.9564030507177259,
          "derivedValue": 0.26126626531317415
        },
        {
          "value": 14.555106242048094,
          "activatedValue": 0.9357124288038078,
          "derivedValue": 0.2668814096241106
        },
        {
          "value": 7.716608642730337,
          "activatedValue": 0.8852764829778148,
          "derivedValue": 0.2813519306795199
        },
        {
          "value": -13.815367357774864,
          "activatedValue": -0.93250251742997,
          "derivedValue": 0.2677687328030447
        },
        {
          "value": -1.2565558248510045,
          "activatedValue": -0.556846771089287,
          "derivedValue": 0.41258008351937564
        },
        {
          "value": 6.828407118659166,
          "activatedValue": 0.8722600926545478,
          "derivedValue": 0.28527757835135015
        },
        {
          "value": 37.119276933662405,
          "activatedValue": 0.9737665538163207,
          "derivedValue": 0.2566896921682345
        },
        {
          "value": 8.042075411486,
          "activatedValue": 0.8894059212634174,
          "derivedValue": 0.28012344315026827
        }
      ]
    },
    {
      "neuronsSize": 16,
      "neurons": [
        {
          "value": -1.5074641908858843,
          "activatedValue": -0.6011907154507753,
          "derivedValue": 0.39004424434673995
        },
        {
          "value": -14.897928286554713,
          "activatedValue": -0.9370987224262595,
          "derivedValue": 0.2664995564905369
        },
        {
          "value": -21.648013556065745,
          "activatedValue": -0.9558460172445379,
          "derivedValue": 0.26141510604836254
        },
        {
          "value": 12.31511567876411,
          "activatedValue": 0.9248973854883686,
          "derivedValue": 0.26988878286520857
        },
        {
          "value": 13.12670366602138,
          "activatedValue": 0.9292120778037359,
          "derivedValue": 0.26868291765184493
        },
        {
          "value": 18.843828283502862,
          "activatedValue": 0.949606498014733,
          "derivedValue": 0.2630910490407318
        },
        {
          "value": -14.709658524666617,
          "activatedValue": -0.93634489263851,
          "derivedValue": 0.2667070963866532
        },
        {
          "value": 1.1926096418997951,
          "activatedValue": 0.5439224653169243,
          "derivedValue": 0.41951648076667186
        },
        {
          "value": -26.915900852250736,
          "activatedValue": -0.9641781218061829,
          "derivedValue": 0.25920194817947056
        },
        {
          "value": -29.484580072767958,
          "activatedValue": -0.9671965302584796,
          "derivedValue": 0.25840713473727256
        },
        {
          "value": -4.4677459810947555,
          "activatedValue": -0.8171092798645743,
          "derivedValue": 0.3028572031630946
        },
        {
          "value": -7.460793699988373,
          "activatedValue": -0.8818077788610573,
          "derivedValue": 0.28239010903715034
        },
        {
          "value": 1.6296305230824375,
          "activatedValue": 0.6197184390650418,
          "derivedValue": 0.3811719618716822
        },
        {
          "value": 3.1622288012709725,
          "activatedValue": 0.7597441064040878,
          "derivedValue": 0.3229244743052016
        },
        {
          "value": 16.6507922386195,
          "activatedValue": 0.9433453192082776,
          "derivedValue": 0.2647890629773653
        },
        {
          "value": -12.203604185584151,
          "activatedValue": -0.9242631037749669,
          "derivedValue": 0.2700667353839104
        }
      ]
    },
    {
      "neuronsSize": 3,
      "neurons": [
        {
          "value": -53.963863190031134,
          "activatedValue": -0.9818062279111893,
          "derivedValue": 0.25461126947623625
        },
        {
          "value": -4.4890190058019455,
          "activatedValue": -0.8178180838975069,
          "derivedValue": 0.3026210689123473
        },
        {
          "value": 0.5965822744808142,
          "activatedValue": 0.3736620930949608,
          "derivedValue": 0.5299564379076837
        }
      ]
    }
  ],
  "weightMatrices": [
    {
      "rows": 16,
      "cols": 2,
      "data": [
        [
          8.469543203814336,
          -6.807271758866296
        ],
        [
          7.2298190698006835,
          0.595639036345819
        ],
        [
          -7.987960749560625,
          8.860436959689395
        ],
        [
          -3.366732229893894,
          -6.96886824123061
        ],
        [
          -1.791457195078096,
          -3.5219645248227893
        ],
        [
          3.76430215758395,
          5.057014417856633
        ],
        [
          -6.53853564263701,
          0.34758017297370003
        ],
        [
          3.367922427673989,
          -1.5320954585174835
        ],
        [
          -1.709301749185675,
          6.082493866379032
        ],
        [
          -4.0558728822941115,
          2.2118363152220084
        ],
        [
          -8.75121106765217,
          7.361400277735314
        ],
        [
          -7.793226354360567,
          6.3120711948520665
        ],
        [
          -7.289187474235308,
          -8.129178352024597
        ],
        [
          1.3229255559349333,
          -7.546446072233611
        ],
        [
          -5.5445035910775715,
          -4.745045160321732
        ],
        [
          3.4516726766682133,
          -3.165801739457674
        ]
      ]
    },
    {
      "rows": 16,
      "cols": 16,
      "data": [
        [
          -6.8357211572240235,
          -5.579944692696377,
          -2.8360524248596075,
          9.365082021911565,
          -3.945312792769336,
          4.031410834727204,
          -1.7550860237102874,
          -2.2573271097550363,
          3.897408608730732,
          -5.428538542862151,
          -4.900601429714742,
          -8.447209094273504,
          -3.860214106737658,
          -7.400713117148754,
          5.146358384321063,
          3.7540288472274845
        ],
        [
          1.5522455646732265,
          -1.1934275577600175,
          -7.904254543709788,
          7.919548362571728,
          2.5924278910071408,
          5.288927671213461,
          9.12798695955864,
          7.049383641142516,
          9.587623412220154,
          3.3787018039770764,
          -3.8264871186598963,
          1.0631094966809298,
          9.325850553280414,
          -6.825521208137624,
          -8.597563171913363,
          -0.13812427083427536
        ],
        [
          2.4393973571482803,
          5.14671842309246,
          3.4937829218918544,
          0.31359042923611646,
          -6.313101280812724,
          1.164734595033412,
          -6.902570449936869,
          1.1771483821292676,
          -0.354051852515052,
          -8.293898513728022,
          6.541910867959629,
          5.140277071680853,
          -0.9696764706383547,
          4.137502103781937,
          -8.722527950345908,
          -5.464938447683762
        ],
        [
          0.4459408589235885,
          -6.8955427065651484,
          4.362551561072225,
          4.323505850552962,
          1.1028386895088964,
          6.896317646779028,
          1.7743176363872326,
          9.47191789195016,
          -2.374339866805432,
          9.550765059866414,
          -3.8502162674419367,
          0.859684124654374,
          0.6978853820144277,
          9.335840073594294,
          8.857682270965839,
          4.055202350348814
        ],
        [
          6.311131309470838,
          0.6895825060898897,
          -8.590825706149891,
          -6.6145265517216,
          1.976774001731144,
          7.486623994665127,
          5.580591987317691,
          -0.8536436583553471,
          0.5699788142318258,
          9.508194683828613,
          9.245637416852471,
          -8.895786878730636,
          -2.56103746995511,
          -2.055919602340845,
          -7.571621706425264,
          -8.909307013055665
        ],
        [
          3.5140584081536232,
          -9.596683706674183,
          6.664109968607111,
          -5.695106234096312,
          2.0446523687125264,
          4.095974928070284,
          3.703305365546786,
          0.19253005872932505,
          -8.908708092279205,
          4.8066506859695615,
          -6.064756662296899,
          -8.90640701686374,
          -1.4993051920297678,
          3.4322287652157986,
          8.052737746385008,
          -1.026560095855892
        ],
        [
          -6.929074191648914,
          -7.593477343807431,
          0.631116672286197,
          -6.306307804606943,
          9.536470101317086,
          7.382953729350628,
          6.599760770867679,
          -4.30405786112104,
          2.9643220453954946,
          -6.269426707344969,
          -2.8054794744175915,
          -5.879941300955826,
          -2.0052184471119787,
          -6.201462147521779,
          -7.057460793116714,
          -3.8386847092731387
        ],
        [
          -4.541568005302836,
          -5.2832146294798,
          4.7071756996367675,
          1.370146979411308,
          -2.9320651402632074,
          -3.638397430075919,
          -4.296603032925674,
          -3.7603152416906553,
          -7.940140665326643,
          6.301064148822771,
          0.3278431671915847,
          -9.014854812050118,
          4.650507928253569,
          -9.57206105641487,
          3.44893461048496,
          1.0287610061688301
        ],
        [
          2.802324363177525,
          1.0542772923272778,
          -3.504697468041453,
          1.68894852889078,
          -9.477440260568093,
          0.8840515567897789,
          -2.1487321627871347,
          -8.280071258724975,
          0.6819462882393132,
          0.6823542889549792,
          -0.8263823721179155,
          -4.819293157627321,
          5.802141655604862,
          6.556419615327631,
          9.273837364954936,
          7.10195180782388
        ],
        [
          6.571042315969613,
          0.24150316756216483,
          4.840880871134814,
          6.654598308093959,
          -8.631527189400362,
          -3.373058340162123,
          -2.6489362446740543,
          7.888444924932756,
          2.42502066237914,
          -5.786178635864845,
          6.719246922241549,
          -0.8181690150698842,
          -8.64183724773419,
          -7.7129017771092805,
          2.4797314969634865,
          -9.762136942751454
        ],
        [
          -0.6889805250510399,
          -9.506093602047095,
          -9.170314527391701,
          7.19747232202694,
          -3.449513479381894,
          1.3955251366090256,
          -8.768129680635077,
          -5.371636095430839,
          1.8815741432956994,
          5.481955378218586,
          4.254251004928388,
          7.811393234439649,
          -6.55050006831941,
          -6.4451882807846905,
          2.8830187334363178,
          5.943686510430414
        ],
        [
          -8.350595645833012,
          -5.961374857841266,
          -2.340130278791528,
          1.199005223861409,
          -9.945780293171392,
          5.492178420883917,
          -8.59598919172919,
          -2.7880199454738763,
          -8.870881487630193,
          -7.983939910897268,
          -4.349862482678526,
          1.6798615286513492,
          1.7248740961239513,
          -2.7668981358212275,
          6.896162618922862,
          9.396830202770794
        ],
        [
          6.0583929690879685,
          2.449518908732305,
          5.399512543765086,
          7.992600387802362,
          -3.9039233388747956,
          -9.989049715778865,
          9.807187240533302,
          0.8934902750515921,
          2.5161218689987113,
          -9.5834738493949,
          9.794327781926626,
          -2.1625720831925754,
          -1.4807060246156283,
          3.349001118558423,
          -1.0703456953055497,
          -9.148044540486842
        ],
        [
          -3.325710141888512,
          -2.2670519325039926,
          -0.20829029683286926,
          -5.370133404680764,
          2.437623897258625,
          -0.646109046614292,
          4.381780378279645,
          5.574450319407397,
          6.013757817355572,
          -9.740595761042174,
          1.2265792396223159,
          1.6839577328619164,
          -5.914209004509161,
          5.740108397739412,
          -2.0905066162419983,
          -2.66748741255185
        ],
        [
          5.9573753712268385,
          1.706351568974993,
          3.8361783909571106,
          -8.536616840251732,
          -8.205425633688094,
          -4.401817017699694,
          8.30072564326791,
          -8.226207746792094,
          -2.8409820349245347,
          0.8742968913193787,
          6.560025717874627,
          5.789117450575292,
          2.467158681813853,
          -8.704448913373955,
          -5.00835710368333,
          -3.1158029181160245
        ],
        [
          7.661057939361168,
          -8.1044631761481,
          -3.2560761965558243,
          -3.06753409366892,
          -5.2485290983137105,
          1.5442551348457005,
          0.2968695082785704,
          -0.6627016656684503,
          4.119446205606923,
          -9.869830831084016,
          -0.9881055986247986,
          5.665765940699227,
          -3.055445554247589,
          -7.01106969785537,
          3.1835292452966577,
          -6.864167041356866
        ]
      ]
    },
    {
      "rows": 16,
      "cols": 16,
      "data": [
        [
          -3.8775267404415263,
          -2.0124724926064053,
          1.525604170953672,
          -4.139342565239614,
          7.402630588180735,
          5.362666381119785,
          0.7101078434325068,
          5.114599777854316,
          0.8659032156319562,
          1.7936520856079934,
          6.669122682358413,
          9.392880222314808,
          1.348914281002882,
          2.3499469463656215,
          -8.42454166017343,
          -1.6929215509320112
        ],
        [
          8.116576224519601,
          6.747562077090918,
          1.5039890553886106,
          2.3217845888766586,
          -5.736722473868657,
          5.063070414280171,
          3.5290781111214464,
          -2.7525848076244923,
          -0.43417592970922847,
          5.4387377056691975,
          -5.339590037034821,
          0.8804704001517045,
          -5.941371955260783,
          6.1828062107003525,
          -1.0577494900036921,
          -5.679157840939544
        ],
        [
          0.20153753166560762,
          6.278098303527926,
          8.16035504775176,
          9.100702401618047,
          9.635984300462045,
          1.6629376005321284,
          6.522111452864017,
          4.345301614051264,
          7.905397123456048,
          -2.2405264297590026,
          -4.1108042512413245,
          7.456942105596472,
          -1.0868234345985321,
          -0.06025811566120609,
          -6.683642082997981,
          -0.4629302164960354
        ],
        [
          -7.319162750834554,
          6.447485671846927,
          1.2838678060793498,
          -9.933447479801865,
          -7.6084842766075695,
          -3.240555435897705,
          -9.045529764964702,
          -5.868127798162881,
          -4.549596792535137,
          -5.454820827328682,
          2.6896983648980957,
          6.9044163585412655,
          -6.076263780616538,
          0.5573228889055954,
          6.607908877142904,
          2.415875909238455
        ],
        [
          4.178547591782442,
          -5.332453140854114,
          -4.6057908620765105,
          5.223814294330856,
          8.199714159675267,
          3.034940302980459,
          -1.6477480482189708,
          -0.5488892014405131,
          -7.304578526598256,
          -4.478646243934639,
          3.633316955992944,
          -2.2435305362684943,
          -7.018725157239972,
          5.083293391566707,
          5.785070906505629,
          -3.856163883154542
        ],
        [
          -0.5196713869915184,
          -5.689206985518648,
          0.8202522375624675,
          -9.433161490777383,
          4.535228298674063,
          -3.21300583841756,
          7.764791154587019,
          0.1807420541446294,
          4.544523017601673,
          -0.35284789027715946,
          -0.7464126762696228,
          -1.0972762005821544,
          6.37309750479628,
          0.4963522906041984,
          5.7128498340941665,
          -9.126855954635928
        ],
        [
          0.6960216880276633,
          -3.6572357331833016,
          7.337634837149942,
          4.632576926669692,
          -3.1290212203627394,
          0.6788551658176338,
          -2.429917301461522,
          3.7338541750038097,
          4.73071136630837,
          1.4632573781822522,
          0.7723935852953794,
          4.6046447421732655,
          -0.7892033470553255,
          -2.2116968804877484,
          -5.311690890598328,
          3.5703948925548907
        ],
        [
          -7.581459437293954,
          0.274775504997244,
          -6.049126236622351,
          -9.405326138485039,
          8.018186470316891,
          -0.4726466707719936,
          -1.138430113699334,
          -2.3618404477006365,
          6.1961378423061895,
          -4.360889400743886,
          -2.0761069339123512,
          -1.1645842113194949,
          1.0836042369259928,
          -9.672009732621609,
          0.6193703867014118,
          1.7783561085707333
        ],
        [
          -8.691297342011799,
          -8.589986562748518,
          -8.17057989751778,
          -0.04448934893502976,
          -5.218503794684168,
          -3.3383373787539874,
          -6.3082954127101365,
          3.8962376062659105,
          6.288346152375771,
          4.485149011214579,
          -3.586450703644479,
          6.284632349217112,
          1.9509759389505494,
          -2.598377701613181,
          -6.884374497803918,
          -1.239864764446878
        ],
        [
          -0.6816228198031187,
          6.967768672278044,
          -6.584031230465333,
          7.704552805876302,
          4.694781254156215,
          6.045668287072445,
          -0.7180454962231035,
          8.911370421770823,
          2.3568015312090367,
          -7.748461435504597,
          -7.848558228616729,
          3.1431718856564412,
          -9.522477235943828,
          1.2429662805835662,
          1.4724476759177012,
          9.987166686920848
        ],
        [
          -7.181689731901182,
          -3.1881897208212955,
          -3.7181603351616914,
          1.744948810170614,
          3.735699421209164,
          -0.7404016011771368,
          -6.833058006514543,
          -3.1423092624436766,
          9.617614137264173,
          -3.690897409685845,
          1.0050107503324348,
          -5.311037035090839,
          -6.842565765033111,
          0.5847422389400521,
          1.135005353432872,
          -7.717056343060089
        ],
        [
          3.8395630910858505,
          8.900285485095761,
          -0.231014954778491,
          -5.9534436870706315,
          9.666657129680065,
          -6.52988875167162,
          -0.6383692888526546,
          9.843330136030993,
          -1.890151949352834,
          -0.05114051565720956,
          3.9365563534919232,
          7.962045808089268,
          10.162473648250197,
          -4.156265747123866,
          -4.611437842641206,
          6.3084536531981925
        ],
        [
          -4.995890656381996,
          0.3047536958870989,
          0.35238066629910314,
          -4.1577135635077305,
          -8.520677192135434,
          -6.858555902177105,
          -6.761675470786248,
          -9.349623824998076,
          -5.2091585007499,
          2.79522741671113,
          -7.5658316028021,
          6.739640889930186,
          -0.16666075694895,
          -4.9026672812584815,
          1.6699704163747242,
          1.8283135844915126
        ],
        [
          8.512110801634648,
          -0.6789778338392565,
          -4.832377645266099,
          -3.8751351817197666,
          0.31796923791878484,
          -7.6872398351979125,
          -2.4685367378413563,
          -1.8696454665559674,
          -6.7568582889813555,
          -2.8989766506159986,
          4.568268827803335,
          0.5297965013145105,
          0.08464859823458504,
          5.419522879647047,
          -9.955276741327728,
          2.4508588093190014
        ],
        [
          4.654441829400443,
          1.2447317356660739,
          2.201309977398786,
          -9.093164979428973,
          -3.7872866268409044,
          -4.649737432151673,
          2.9921090037559654,
          -8.569065505236315,
          -7.0465853778486505,
          5.925368877968824,
          2.534320371789036,
          9.035740087426003,
          -4.960381200922801,
          -1.394440108695159,
          -7.502798791015175,
          0.12954207646690108
        ],
        [
          -3.7850079971163586,
          -0.005775287528814843,
          2.306521707193891,
          6.3689368411102585,
          -9.911169489954258,
          6.493629052116834,
          -3.295452927320297,
          -4.950630148082378,
          -2.202674693145772,
          4.953825839520469,
          6.226530835554055,
          4.0331191206343355,
          6.8591581189255955,
          8.471674866345445,
          -8.078113821613888,
          -1.2226200981552182
        ]
      ]
    },
    {
      "rows": 3,
      "cols": 16,
      "data": [
        [
          1.6123136629265364,
          7.344669475904637,
          -1.1547577041334538,
          3.327381680511637,
          -5.019189450720449,
          -7.778337805844351,
          2.723627082139104,
          4.742796844560394,
          7.663513736167349,
          9.597373849507651,
          3.2280740754691637,
          5.594798195010405,
          -7.369175556055694,
          -5.0204073853451066,
          -2.916416498453211,
          3.156404549462737
        ],
        [
          2.041896310430486,
          -7.09520249040908,
          -7.349862851912739,
          -8.74411959830098,
          -4.736414438074715,
          4.692243836415935,
          0.2553430219509065,
          -0.03083932370258058,
          -2.3520037201941495,
          2.3046885474182988,
          -8.172372651224398,
          4.968265421948955,
          -6.677923425404975,
          0.3838044782558043,
          -5.540192197857947,
          2.0873320521065875
        ],
        [
          -0.6489776928673603,
          -7.5395502988818475,
          -9.028422880908701,
          -1.6548295990426105,
          7.341509078925434,
          0.010190581360999929,
          0.03147931167335649,
          -4.847714169493633,
          -2.733082423551454,
          0.36269189809000935,
          8.28896558799072,
          7.0100687861760385,
          -9.641890885875902,
          3.8722730454090524,
          1.9793346476241318,
          6.823911379972113
        ]
      ]
    }
  ],
  "errors": [
    0.0,
    0.0,
    0.0,
    0.0
  ],
  "derivedErrors": [
    0.0,
    0.0,
    0.0,
    0.0
  ],
  "bias": 0.02,
  "fitness": 0.0
}